61146 128
vVLDBJ. 0.0018074325 0.090652704 -0.026714195 0.0069104913 0.046852924 0.0074881907 0.0010870879 -0.2429184 0.039178368 -0.02552137 -0.11532137 -0.008675099 0.052949023 -0.06245507 -0.01588993 -0.027359037 0.08751329 0.020027468 -0.062716834 -0.018541945 -0.017068261 -0.060873467 0.07250824 -0.009601575 0.18868999 -0.025518408 0.07206729 0.021696843 0.028677937 -0.06723939 0.09791017 0.0029251988 0.029055046 0.12160637 0.037830133 -0.07664347 -0.0032100256 -0.07893222 0.021843942 -0.045173127 -0.04566331 0.09021135 0.014511488 0.054249056 -0.025382297 0.25729063 -0.15799136 0.14155763 0.053479064 0.05046079 -0.025358688 0.02532226 -0.44632757 -0.041952137 0.17695461 0.11511971 -0.23024906 -0.055869758 -0.02431836 -0.040876597 0.07726212 0.063640624 0.03800418 -0.2888101 -0.1362086 -0.10525758 0.09166795 -0.0074243494 0.13907342 -0.087505944 0.1997209 0.038940385 0.13043834 0.025666106 0.035295103 0.04601167 0.006050348 -0.27154872 0.19874147 -0.03963989 -0.08181566 0.13984123 -0.017758152 0.023132047 -0.020278228 0.019046176 -0.06972702 -0.13073075 0.0039598416 -0.058253337 -0.03018085 -0.04412606 0.07604139 -0.11896058 -0.19601752 0.09179116 -0.011629104 -0.093345314 -0.2477237 -0.16889054 0.014444775 0.11907527 0.0704122 -0.015754491 -0.030878013 0.19383852 -0.049261432 0.09981987 -0.030440506 -0.26718798 0.09422876 -0.059843186 0.0727957 0.012636773 0.16879036 0.17439364 -0.03974748 0.13475187 0.067371935 0.007470752 -0.152996 0.10888455 -0.15300022 -0.0990146 -0.08672526 -0.11206681 -0.042158544 0.00071205973
aKian-LeeTan -0.010948725 0.0054983534 0.07993034 -0.096719705 0.024858616 0.033874337 -0.003936916 -0.01210029 0.008943908 0.00986574 -0.0068929796 0.034632236 -0.07573434 -0.080296576 -0.042658377 0.055536136 0.11394333 -0.082396664 -0.19372964 -0.2024011 -0.064885244 -0.08617226 0.069892235 -0.053340103 0.23717442 -0.08460471 -0.046465937 -0.01694195 0.024318928 -0.023688227 0.042863652 0.0367366 -0.11724933 0.14548138 0.04542976 -0.008666414 0.08285615 -0.07700688 0.0155810155 -0.0036580132 0.16141035 -0.0144652 -0.0709195 0.12739283 -0.08228284 -0.037122387 0.022040568 0.10077565 -0.011752001 0.18288845 -0.03719554 -0.038171206 -0.41237774 0.01376581 0.024588196 0.11345048 -0.00061829423 -0.030485552 0.039148834 -0.0077552777 0.015251923 -0.04489597 0.11695446 -0.27727708 -0.08760213 -0.04882691 0.012745633 -0.023927832 0.08399957 -0.11660675 -0.115561604 0.06399274 -0.11411971 -0.062610745 0.022233991 -0.0779134 -0.061587397 0.02130714 -0.1326558 -0.011139133 0.026042959 -0.05372849 -0.16002913 0.046782818 0.10449308 -0.06226783 0.048620332 -0.015087898 -0.12391665 0.08270477 0.15434326 0.04869724 0.090600714 0.0049123317 0.09885769 0.011800254 0.025973521 0.022637453 -0.0218239 0.091047876 -0.11043951 0.07591347 0.009217279 0.081648946 -0.027859671 0.008237765 -0.031847585 0.03061119 -0.04929167 -0.16090874 -0.103801355 0.0041136453 -0.09871346 0.015680548 -0.04106537 0.03639061 0.06551757 0.0007421124 0.04318112 0.00789161 -0.01728013 0.18768989 -0.10274309 -0.015978437 -0.016718403 0.044607457 -0.16010003 0.05259723
aJiaLiangHan -0.07532023 -0.008510775 0.13915756 0.058356 0.20347205 -0.1352551 -0.1721876 -0.14378051 0.008679898 0.00044145927 -0.16420256 -0.05800797 -0.062894836 0.10549983 -0.17456473 -0.0032761474 -0.06475305 -0.1269293 -0.014673493 0.06119423 -0.4178595 0.08958481 0.024346309 -0.056732085 0.27941453 0.12885793 -0.087263964 0.014761313 0.18006267 0.078079894 -0.076648414 -0.009058899 0.29206228 0.044135164 -0.25398907 -0.058836758 -0.06851194 0.015745869 0.14414039 0.28500423 -0.12951848 -0.12007911 -0.12028607 0.12876756 -0.26002613 0.067594826 0.10949276 -0.104387276 0.058756776 0.08705017 -0.128445 -0.0026557553 -0.29942152 0.068849325 -0.04427209 0.19351569 -0.120649464 -0.116854765 -0.0053551863 -0.07171704 0.084063426 0.064758666 -0.014249055 -0.20604736 -0.16547048 0.041564923 -0.072869584 0.028514212 0.032501306 -0.15826179 0.07868863 0.056133393 -0.109720804 0.105558805 0.078154996 -0.011675329 0.020596245 -0.1276831 0.12848914 -0.09493703 -0.14713763 0.13620155 0.10065599 -0.10267148 0.09551553 0.3398222 -0.062526725 0.06925436 -0.10800937 0.16599582 -0.045112465 -0.13400815 -0.023077762 -0.092406176 -0.027489083 -0.025118353 -0.010447913 -0.13818179 -0.1795851 -0.08353498 -0.15799183 0.18244503 -0.043065734 -0.064528964 0.0723481 0.22090618 -0.13184494 0.086371854 -0.15885557 -0.28022355 0.23545375 0.060034577 -0.07067507 0.052960288 0.0076054716 -0.09258233 0.16233993 -0.07119762 0.09607617 0.035197694 -0.15239573 -0.10762243 -0.29922578 0.15280889 0.22130884 -0.12573469 0.050481398 0.0013854188
vCIKM 0.042419765 0.18142825 0.0060016825 0.015998838 0.0058874427 0.042304028 -0.05665104 -0.050637156 -0.13965715 0.07710238 0.04264486 0.061350048 -0.05415627 0.27525535 -0.16696206 -0.04617604 -0.13115665 -0.056340165 0.0124080125 -0.106796384 -0.0153149385 -0.08938563 0.084486194 -0.13097581 0.07957837 -0.043891493 -0.095347285 0.12653948 -0.024924824 -0.09681121 -0.036261305 -0.055157818 0.12997183 -0.09100809 -0.074009806 0.048877876 0.024387242 -0.05004831 -0.18203127 0.15056099 0.0013725016 -0.08602867 -0.0724626 0.037100542 0.094950385 0.04520273 -0.14059342 0.08827681 -0.008604055 0.04375275 -0.26975626 -0.10434437 -0.085388005 -0.015922077 -0.031514704 0.06910456 -0.15803377 0.06614724 0.123918235 0.25942132 0.060096234 0.12945531 -0.106027246 -0.15784816 0.030046107 0.027974924 -0.00382558 -0.06187698 -0.11500667 -0.06589511 0.10838388 -0.11340686 -0.04393717 -0.13243547 0.0051362524 -0.088395566 0.10753843 -0.19496247 0.07471752 -0.011446575 -0.048480455 -0.07076361 0.01220613 0.011214785 0.11948642 0.04711509 -0.011354671 0.07673903 -0.06363886 0.062483136 -0.07806157 0.03767607 0.05522664 0.2029735 -0.1609915 0.07303421 0.071136035 0.02615065 0.20478307 -0.124319896 0.060359344 0.058947746 -0.2889552 -0.1759531 -0.026800012 0.12274357 -0.07704586 0.10064734 0.016356142 -0.01527249 -0.049062993 -0.10658556 -0.081226006 0.07394396 -0.018393364 0.007551463 0.045808163 -0.095886014 0.09437318 -0.001996678 0.056228563 -0.0667953 -0.026079575 0.079270944 0.049231395 0.1043433 0.09512152 0.050224755
aBaopingZhang -0.03311724 0.11820716 0.049154483 -0.13760993 0.011528733 -0.039629757 -0.06816556 -0.062606715 -0.06632278 -0.11854676 0.29425365 0.1056583 -0.11680236 0.29692796 -0.0010190607 0.16802397 -0.1967997 -0.18245026 -0.037638843 0.0025210131 0.2569382 -0.39374664 -0.0011920974 -0.026020125 0.19672155 -0.074874625 -0.1450933 0.0033388333 -0.006418423 -0.03094106 0.013028271 0.07872751 0.009247164 -0.014061863 0.047034185 0.124076046 0.02747092 -0.029882668 -0.24843165 -0.06770265 -0.006579765 -0.26970822 -0.2993425 0.008930531 -0.048718777 0.11328334 -0.20802903 0.068199605 0.13494182 0.031476986 0.069035076 -0.11616543 0.14800298 0.1277661 -0.04719184 -0.10579838 -0.16314796 0.2147334 0.012911491 0.22982341 0.028201789 -0.040129386 -0.12987445 -0.22487937 0.10774065 -0.07581585 0.010248041 -0.17795537 -0.09788652 -0.21912289 0.054863542 -0.035491087 -0.18448953 -0.08425491 -0.12324985 -0.06449372 -0.10778415 -0.17802787 0.07936096 0.013219873 -0.15780951 -0.06736852 0.049238663 0.11239704 0.0509767 -0.05029502 -0.17008618 -0.027158314 -0.052679703 -0.10266657 -0.094447605 -0.069185734 0.055508483 0.17606832 -0.101248994 0.05176098 0.060280737 -0.005133429 0.20373435 0.12662235 0.056775376 0.21021742 -0.48698178 -0.104895785 0.061271224 0.09650835 -0.2211728 0.17007181 0.010479671 0.025755828 -0.058991957 -0.068729304 -0.15974963 0.15421236 -0.23787412 0.012731067 -0.023278078 0.10241991 -0.12686595 0.10665011 0.06238421 -0.1705872 0.017142825 0.23928343 0.07560331 0.08936544 0.085468546 0.14095141
vICADL 0.08233862 -0.055845268 0.039261874 0.08912151 0.030757628 -0.08772554 -0.051772486 0.08487151 0.108283 -0.05750176 0.1382483 0.01936558 0.0029275077 0.090599455 0.09272012 -0.06646965 -0.106058195 -0.112976246 -0.006603189 0.270311 0.28656453 -0.37351573 0.08140198 -0.06464788 0.03336778 0.023136526 -0.024816701 0.0065555195 0.009414194 0.026534509 0.005080309 0.024894336 -0.044775113 0.0018947381 0.19208595 0.07457537 0.11871358 -0.041118506 -0.08318596 -0.15891771 -0.08450012 -0.07570043 -0.15309323 -0.035688765 -0.081548296 0.13451135 0.041453406 0.061002426 0.17347537 0.07277833 0.37051168 0.019529194 0.26312578 0.004448543 0.10207759 0.052859947 -0.044661224 -0.03897041 0.025061533 0.03930522 0.10186467 -0.07416727 -0.16613531 -0.38939548 -0.0075430344 -0.04013218 -0.10954991 -0.06573473 -0.018167824 -0.40951553 -0.0043745986 0.01279676 0.14376828 -0.039376386 -0.026434064 -0.1056607 -0.035848968 0.11941392 0.023615126 -0.04726317 -0.08639999 0.080080114 0.059981417 0.17383657 0.20081706 -0.007851289 -0.02044694 -0.078835025 0.08438734 -0.07233817 0.049426112 0.03733895 0.16417721 0.006446215 0.022548333 0.11887868 -0.1144513 -0.06011399 0.10713865 0.12608655 0.026985694 -0.029101769 -0.6296017 0.09464601 0.19652882 -0.077428825 -0.015542357 0.0015661268 -0.0095309485 -0.018911464 -0.086170234 0.016594803 -0.014946078 0.08731439 0.056165516 0.11557147 0.08754085 -0.014445568 0.004232139 -0.031004999 -0.0040075523 -0.048856772 0.06192462 0.2260656 0.09925508 -0.13988256 -0.023682125 0.12702757
aMarciaMardis -0.045983315 0.09304751 0.061745357 0.11268463 0.0046911626 -0.054737214 0.037186306 0.14896743 0.20223801 0.08444373 0.07624319 -0.028518831 -0.09308596 0.1282432 0.1014292 0.018450182 -0.13001122 -0.16188245 -0.14621854 0.4300355 0.17135249 -0.33354977 0.012182793 0.12119232 0.07941893 0.01483215 0.054692768 0.087125435 -0.0014781583 -0.014999803 0.065094694 0.16202748 -0.15763034 -0.09272985 0.15731877 0.09522266 0.21140681 0.043431863 -0.076965354 0.046369478 -0.13178822 -0.025984295 -0.030785056 0.042924847 -0.06995579 0.0038096444 0.1367016 0.15077811 0.018227587 0.08340672 0.25329876 0.23701811 0.45556077 -0.013704466 0.12254896 -0.050899282 -0.07905153 0.14035569 0.1288283 0.2609697 -0.0049263095 -0.0602581 0.11514401 -0.34446126 -0.095892176 -0.048736382 -0.058221336 -0.16304415 -0.14008518 -0.56328094 0.1148545 -0.08221459 0.091755256 0.21178298 0.07868088 -0.14591518 -0.0037019274 -0.011272617 0.05217259 0.010537263 -0.06835494 -0.03587911 0.03863844 0.25699124 0.23443463 0.06349674 0.09298361 -0.14834303 0.050648633 -0.089572 -0.031201813 0.17645757 0.18370758 -0.08199207 0.13907306 -0.03423269 -0.08004629 -0.05108573 0.11306812 -0.046387788 0.034905523 -0.10065162 -0.6423587 0.0744823 0.3980616 0.09748023 -0.054704566 -0.029855832 -0.25999415 0.010307035 -0.10325524 -0.08438698 -0.11648114 -0.014723099 0.041076515 0.029695883 0.07902833 -0.10213297 0.027872475 -0.021231446 0.26527599 0.056144375 0.10681365 0.22854723 0.042625904 -0.105274536 -0.17778847 0.10156322
vJCDL 0.017736867 -0.05684704 -0.024621611 0.023882985 0.04547741 0.0014230208 0.02542401 -0.025863633 0.11180221 -0.009015161 -0.06030098 0.012805309 -0.043588992 0.12842982 0.07555028 0.10285896 -0.0039819675 -0.031714175 -0.070236094 0.33330414 -0.020125788 -0.003038811 -0.017121328 0.059331506 0.032012623 0.050918948 0.13926424 -0.06651901 -0.034137674 -0.021469714 0.04507395 -0.06853431 -0.08176563 -0.11470113 0.35292223 -0.052124955 0.15295087 -0.034977753 -0.033331215 0.137303 -0.07456391 0.17059869 0.015517271 -0.052194465 0.0016197503 -0.06862472 -0.033641633 0.016318426 -0.107664175 -0.060263444 0.085075825 -0.048455957 0.49016526 -0.01966371 -0.06092018 -0.090254955 -0.032950085 -0.011072895 -0.05435886 0.14880967 0.07434128 0.042336855 -0.052622877 -0.39226836 -0.14135423 -0.056221273 0.054384544 -0.010642554 0.032259293 -0.4436436 -0.022623332 -0.031376965 -0.07500266 0.020450786 0.039455622 0.008030386 -0.056397863 -0.13937709 0.017158734 0.14058769 0.046627857 -0.050702415 -0.026601296 -0.109149046 0.048341293 0.028159153 0.05978358 0.006190322 0.019706167 -0.11436017 0.0056797103 0.05893096 0.35175714 -0.045906126 -0.03026029 -0.028299686 0.06374219 -0.015358386 0.020898761 0.010301297 -0.0021288325 0.077733904 -0.56576884 -0.02556341 0.3454675 0.018559964 0.040147375 0.0664454 -0.09337284 0.014880482 0.044639938 -0.0304526 -0.02422226 0.048715986 -0.11725349 -0.103651054 0.04611103 -0.078348175 0.04658551 0.025900379 0.06440282 -0.03437581 0.050703414 -0.055234212 -0.059253242 -0.021254394 0.0047922563 -0.018263206
aGodmarBack -0.13886893 0.015921649 -0.04588888 -0.05156563 0.023051629 0.06964377 -0.05533801 0.013708657 -0.08663615 0.041036606 -0.1719806 -0.016059956 -0.097866856 0.13337347 0.15155473 -0.008413414 -0.009256096 0.11158032 -0.08082613 0.20904933 -0.020099944 -0.03149519 0.0045054574 0.09216035 0.050850794 0.23132247 0.2977371 -0.08684999 -0.08876771 0.07411217 -0.1536096 -0.03826266 -0.030165385 -0.07681602 0.38954222 -0.06324228 0.26373294 0.023871582 -0.091713764 0.16764623 -0.21840112 0.12137285 -0.06721837 0.0014849005 -0.08141658 0.0056814793 0.043383252 0.008019271 -0.19969833 -0.14911447 0.13914251 -0.06536676 0.5851732 -0.14979142 -0.28022173 -0.092561446 0.012055717 0.0016475248 0.022722572 0.18632746 0.06785015 0.13541378 0.10099385 -0.49358186 -0.20674731 -0.066827126 0.028678743 0.16438438 0.18750313 -0.5235333 -0.0057644197 -0.003925592 -0.13268225 -0.03342107 -0.16081072 -0.06065086 0.075516365 -0.081790805 0.11133171 0.10492012 0.19307972 0.020849086 0.0058239833 0.07509413 0.0086347405 -0.024522733 0.028750122 0.01092283 -0.005778393 -0.100745715 -0.031185301 -0.011465773 0.4642753 -0.0801598 0.02209116 -0.108022 -0.23448364 -0.081299424 0.015233443 -0.06556216 0.13466965 0.014440916 -0.49518254 0.04402437 0.2696962 0.09398732 -0.1431572 0.052641302 -0.12980025 0.060484685 0.049996126 0.13098282 -0.030478152 -0.07848203 -0.13546361 -0.051050495 0.23152693 -0.18541315 0.0030406278 0.07479861 0.003912011 -0.16803204 -0.026940405 0.02385107 -0.19719 -0.13921767 -0.07038595 -0.08889922
aRayR.Larson 2.5301513e-05 0.082841985 0.06762318 0.06576701 -0.029005814 -0.027758291 0.06496091 0.102625996 0.13150506 0.020830091 -0.19526309 0.0264921 -0.03908613 0.02918046 0.013263241 0.050242297 -0.07333965 -0.1509611 -0.027979422 0.057088833 -0.021415187 -0.09626159 -0.048375174 0.0018187092 -0.05172158 -0.036680613 0.11214181 -0.04173122 -0.15837471 -0.057178788 0.116061494 0.004412116 -0.04383848 -0.07503256 0.044119347 -0.034787063 0.14154795 0.15675884 -0.035752602 0.114939414 0.21862881 -0.11474047 0.03032765 0.012242868 0.074742414 -0.0022163282 0.03579198 0.16447549 -0.060489386 -0.06589815 0.10518396 0.06596323 0.54404753 0.03126977 0.015813105 -0.035536617 0.06026837 -0.03217632 0.054096077 0.04204833 0.08168496 0.056653097 0.14888892 -0.15065213 -0.08752306 0.002030508 0.12514864 0.005832094 0.06226646 -0.30384186 0.009584897 -0.091368854 -0.08807068 -0.012336705 -0.008532123 -0.018908778 0.018223273 -0.300409 -0.042791035 -0.09178557 0.04153316 0.046076275 -0.114458226 -0.02043162 -0.042014256 0.07897669 -0.066335 0.1255024 -0.12654789 0.049953707 -0.01392112 0.006240165 -0.12245234 -0.08008313 -0.03294999 -0.109081596 -0.1534312 0.04640456 -0.07722374 0.0030607786 -0.039559435 0.056788784 -0.6548325 0.07988724 -0.11117018 -0.006059804 0.12829123 0.0078537185 -0.070406325 -0.033097323 0.011011591 -0.14103103 -0.06991063 0.10811181 -0.20821418 -0.16265301 -0.0038607535 -0.05734795 0.033574264 -0.014889038 0.14710754 0.09119637 -0.052668557 -0.084453315 0.02503597 0.14267637 0.019161021 0.052933928
vTREC -0.00542703 -0.123649575 -0.022585552 0.04740425 0.16113475 0.06057617 0.016435983 -0.03717427 0.008936493 -0.071176425 -0.13358265 -0.08519861 -0.016783992 0.08458447 -0.15294033 -0.028215034 0.057202507 -0.113206565 0.036557183 -0.345927 -0.2085847 -0.043130726 0.055371787 0.040020753 -0.13397998 0.056572795 0.019430092 -0.045719165 0.047316376 0.016766926 0.008927786 -0.029089676 -0.024061067 0.03253849 -0.033698138 0.015211213 -0.07337319 -0.1378749 -0.020775357 0.20160456 0.039398395 -0.12593932 -0.06782066 0.021413963 0.028587155 -0.06811271 0.020705186 -0.072222844 -0.0733925 -0.1275397 -0.062325347 -0.020493763 0.43177176 -0.055609 0.016698629 0.031234307 0.029937536 -0.03496555 -0.013193015 0.0886972 0.12837933 0.007187235 0.072533295 0.03995181 0.0005021228 0.0061592893 -0.033377964 -0.12586746 0.06518267 -0.2800986 0.049844734 -0.039523937 -0.054404106 0.0150218 -0.038155362 -0.015966147 0.032105736 -0.3770918 0.025528822 -0.049304724 -0.08303405 -0.04023968 -0.0028650535 0.068622686 -0.04376976 0.009763547 0.12751369 -0.067161314 0.07263954 0.02468807 -0.015921833 -0.11901972 -0.17384228 -0.026768357 -0.09731138 0.020274317 -0.11281893 -0.0875204 0.100158475 0.050064024 -0.07243116 -0.04667567 -0.68609524 0.08703085 0.098095566 -0.047531668 0.07818268 -0.033351567 -0.020118404 0.07955259 0.041990142 0.041557055 -0.05207451 -0.046957497 0.14060046 0.06907943 -0.07514385 0.01716565 0.029502798 -0.027668528 0.05626898 -0.009116647 -0.062176272 0.069930375 0.035597123 0.10559063 -0.082587935 0.23125185
aMartinWechsler 0.10512018 -0.06046401 -0.0611057 0.09076092 0.107798114 0.22624695 0.061335653 -0.0153551735 0.17178464 -0.12109875 0.1801755 0.14579795 0.07919222 -0.059570856 -0.23349775 -0.1400885 0.010990226 -0.17330863 0.23714979 -0.11684305 0.024750274 0.0048527718 -0.16038904 0.038853783 -0.14520875 0.149044 0.04346199 0.16891138 0.16227823 -0.018397264 -0.109733656 -0.02434188 -0.0482752 0.16007635 0.020755125 0.011477989 0.029388102 0.026437813 0.044003457 0.25332522 0.050336085 -0.19377592 0.019111797 0.09389515 0.15276752 -0.031829085 0.025246065 -0.17682318 0.14816946 -0.11698815 -0.22209145 0.0408684 0.40974122 0.10505504 -0.12292245 0.14321773 -0.049664956 0.059010554 -0.05777474 0.076964326 -0.29658094 0.011157314 0.14469233 -0.088423975 0.11373565 -0.013408788 0.17783518 -0.06618245 0.0009045035 -0.28237614 -0.1176177 0.008723584 -0.08476894 0.043625228 0.18825 -0.096891105 -0.06178019 -0.34779996 -0.041059688 0.0016970868 0.14019264 -0.20893607 -0.021808032 -0.010546908 -0.06494246 -0.3151012 0.013195967 0.028458066 0.05635761 0.14954099 0.0079676015 0.087472685 -0.13755323 -0.1120301 0.054664608 0.16912523 -0.05425453 0.097514115 -0.10679431 0.050772622 0.18626627 -0.10328868 -0.48545635 -0.051400695 0.09410521 0.023696104 -0.10816081 -0.26581058 0.10298949 -0.19767526 0.17799766 0.05279763 -0.10555846 0.07418984 0.10434362 0.0052184765 0.03618772 -0.034447383 0.12527664 0.051163286 0.2256937 0.04049484 -0.028255535 -0.04984557 -0.007421872 -0.08845 -0.14135534 0.27878198
vInf.Retr. 0.035344966 -0.04469895 -0.093604386 0.0066781943 -0.058041148 0.07177946 0.11243654 0.039361414 0.22092395 0.037859667 0.09643059 0.08348255 -0.07266091 -0.076949626 -0.14888658 0.10056963 -0.09377321 -0.121200904 0.009217014 -0.085685074 0.022776784 -0.05647477 0.0072415527 -0.02487805 -0.17628634 -0.09157202 0.010180687 0.096442856 0.114027485 -0.20332865 -0.004421068 -0.028940557 -0.14516903 0.19978318 -0.09420017 -0.06245711 -0.017875385 0.048500534 -0.041856367 0.049710788 0.15533723 -0.010624969 0.036321893 0.07642 -0.106082134 -0.011228351 -0.1472143 -0.017103985 -0.0912138 0.011912883 -0.10101353 -0.06217504 0.3567431 0.120914906 -0.15646164 0.14136201 -0.11961932 0.033512957 0.13718234 -0.00489477 -0.1041018 -0.052147318 -0.09345165 -0.08167175 -0.012993211 -0.028016852 0.100005716 -0.0022368175 -0.056373883 -0.1542427 -0.15461123 0.06322011 -0.109641686 0.03669402 0.15995182 -0.02447858 0.00782184 -0.33387735 -0.06967888 0.0018899301 0.103281155 -0.11939987 -0.039192528 0.10174192 0.01954354 0.022485655 -0.06054885 -0.16782708 0.13787568 0.057136185 0.027934883 0.0018294743 -0.24417855 -0.011625351 -0.20106068 -0.015640063 0.032014992 0.22832704 0.05488814 0.037482634 -0.0014635512 0.009778853 -0.68124783 -0.052523255 -0.11977853 0.055342983 -0.09346737 -0.037316013 0.12035561 -0.14442183 0.16738142 0.07973232 0.06996339 0.16726646 0.090455376 -0.084682554 0.028259 0.0503058 0.026455294 -0.014225771 0.058148954 0.17310286 0.004516343 0.014089474 0.053970397 -0.09019645 -0.09917619 0.12295209
aJacquesSavoy 0.09068113 0.038820688 -0.12569362 -0.031138899 -0.07433807 0.017326504 0.14632308 0.038455267 0.097504035 -0.028913312 -0.062039826 0.060969554 -0.035093408 -0.3155013 -0.24661893 -0.03718616 0.055495184 -0.06635374 -0.062665746 -0.1393409 0.01880574 0.048945535 0.038464695 -0.05178914 -0.042804323 -0.08523185 -0.028971393 -0.069272496 0.03571089 0.009553027 0.008413639 0.039618406 0.06481121 0.04567933 0.046482537 -0.02042347 -0.028995281 0.04485728 -0.019415373 0.06689059 0.066958226 -0.0033148087 0.08362833 -0.09415248 0.043214977 -0.052419778 -0.058755565 0.0027952367 0.100378476 -0.14686033 -0.02409965 0.08729152 0.4621382 0.007400681 0.036861148 -0.013419321 -0.0021295268 0.13078415 0.010039654 -0.110148095 -0.0609857 0.07172194 0.14456168 0.03277814 0.044545975 0.059942875 -0.09115608 -0.044807028 0.040346026 -0.37552342 0.1754191 -0.23378536 -0.0770529 0.06443068 6.9391805e-05 -0.0020349931 0.10119531 -0.28413236 -0.04607606 0.012887377 0.064979166 -0.0032093222 -0.021107076 0.11431653 0.0040842253 -0.009790359 0.10979007 0.09875532 0.004968343 0.0414842 0.11569562 -0.011556407 -0.33686313 -0.04537039 -0.10470844 0.08019108 -0.15719135 0.012126258 -0.14260398 0.102760434 -0.011148983 0.09868104 -0.6876844 -0.083681464 -0.06225362 0.017918292 0.04978705 0.061180998 -0.015185128 0.030787706 -0.06241327 -0.12421709 0.07038982 0.11749872 0.09841101 0.034000706 -0.050272368 -0.079874806 -0.03649569 -0.05934882 -0.028139027 -0.006018718 -0.07646816 0.059359174 -0.011539001 -0.033228513 -0.061405703 0.11005609
aStephenHuffman 0.029462015 -0.11245973 -0.03342139 0.081396125 -0.026260208 0.07940929 -0.056930225 -0.1025659 -0.086743 -0.038372 -0.10260383 -0.016943254 -0.0059934338 0.103279874 -0.113637365 0.03804037 0.1234095 -0.10688343 -0.0020613784 -0.3749172 -0.17485084 -0.013154745 0.009839783 0.030335838 -0.18977629 -0.03285115 0.09271408 -0.11361744 0.093192674 0.043009907 0.2634783 -0.015853478 0.102014706 -0.1063124 -0.075426064 -0.010155291 -0.0449772 -0.07575222 0.010548245 0.15133706 -0.0025927848 -0.26958847 -0.054287676 0.051250253 0.034973413 -0.058661133 -0.10693576 0.048709743 -0.1506837 -0.1304072 -0.1509581 -0.13400678 0.47643867 0.032349356 0.010140667 0.088245235 -0.041355 0.08593577 0.069182284 -0.02850608 0.138595 0.019450419 -0.0073623164 0.015226757 -0.0012897063 0.06646472 -0.044519298 -0.095890425 0.086668245 -0.266403 -0.025174238 -0.06674284 -0.07412304 0.060462806 -0.030686531 -0.012994485 0.07834392 -0.4209183 0.08530726 0.033184465 -0.09281195 -0.0023923859 -0.041418947 0.056482412 -0.100751914 -0.00454054 0.057291366 -0.11465644 0.0062697497 0.07921856 0.0015225877 -0.10906961 -0.18959068 -0.0074908477 0.05644958 -0.0055082543 -0.11646754 -0.050598715 0.21824108 -0.055529267 -0.07195606 -0.021328017 -0.69244707 0.16100526 0.13161896 0.0067313053 0.07320649 0.00021777923 0.023869982 0.09070706 0.10705343 0.04801893 0.041478377 -0.14967583 0.2351479 0.084424205 -0.14103343 -0.13625535 -0.0307184 -0.014755459 0.0051182234 -0.08472744 -0.094772324 0.08653638 0.033296578 0.13860284 -0.080272414 0.29200667
aCsabaCzirjek -0.21245112 -0.22693996 -0.23521541 -0.09411941 0.25120917 0.19329177 -0.15799719 0.14633182 -0.06653826 -0.34800097 -0.05197061 0.16898629 0.116129786 0.29016533 -0.30225918 -0.25610197 0.15131792 -0.26919577 0.1189883 -0.37009102 -0.2889692 0.10995357 0.32346794 -0.11156692 -0.1797679 -0.14236607 0.037454285 0.042929333 -0.19773427 0.32113725 0.11240109 0.12276053 -0.047786646 0.24119613 0.024109373 -0.1831404 -0.0035484834 -0.1800232 0.3501663 0.3133696 0.14707075 -0.18782943 -0.21294567 -0.05989115 0.37791768 -0.026988588 0.05582737 -0.19413964 0.039759487 -0.11507473 -0.10304412 0.28879356 0.46257427 -0.13905936 -0.24324219 -0.013258987 0.01933624 -0.074253954 0.34744403 0.02831607 0.25245678 0.040387504 0.3195353 0.15522218 -0.029385153 0.34579772 0.29739845 -0.5017162 0.17135693 -0.28780225 0.15762693 -0.123350404 0.28029135 -0.1889555 -0.5662032 -0.1541033 -0.1193094 -0.4081889 0.05234479 0.058181223 -0.16042791 -0.0145628825 0.24223897 -0.07007684 0.0844033 -0.021486638 0.07129521 0.04716377 0.3419344 0.13802779 0.15748163 0.10200496 -0.028797401 0.31278235 0.14507607 -0.17699152 -0.35955706 0.13027696 0.13758671 -0.05649604 -0.10273444 0.152709 -0.740131 0.11364185 -0.016160317 -0.06394741 0.07005043 -0.3646284 -0.06793243 -0.111541845 -0.11824852 0.028981308 0.05467735 0.051923968 0.04627394 0.17420158 0.03644547 0.021728883 0.062968336 0.03928615 0.32432577 -0.060287546 0.20194568 0.06145541 -0.094324276 0.13766128 0.16309308 0.43590528
aIanRuthven 0.028597001 -0.08710382 -0.060647696 0.00121319 0.04753615 0.15593009 0.023464214 -0.058414403 0.046188746 0.04551931 0.07679031 0.06228425 0.06554915 -0.026539953 -0.13046207 -0.1246609 -0.12500007 -0.064273044 0.13256665 -0.07684097 -0.01232867 0.018376846 -0.045401927 0.07806975 0.026474996 0.014913469 -0.025708646 -0.0543197 0.028456062 -0.11261589 -0.17404012 -0.011495891 0.031956736 -0.028311273 -0.07958834 -0.029791128 0.06439222 -0.07397291 -0.0687546 -0.027716065 0.1022148 -0.021501446 -0.07414399 0.010244098 -0.04934323 -0.03964874 0.056831673 0.017685086 -0.11526192 -0.06466288 -0.06065634 0.122199595 0.47470382 0.03460214 -0.06353718 0.0050892415 -0.077287845 0.02373842 -0.035940137 -0.011930872 -0.08644015 -0.11796397 -0.116979934 -0.12507312 -0.0574841 0.1795224 0.110318184 -0.0667718 0.05032245 -0.26032838 -0.036207814 0.04922989 0.07396474 0.06400971 0.21490374 -0.032130085 -0.07941864 -0.2656017 0.05581729 -0.17061771 0.04415015 -0.07438311 0.044464506 -0.07230942 0.01975747 -0.087654516 0.13099933 0.08734815 -0.018643446 0.15448692 0.017723884 0.11872396 -0.14948212 0.06706894 -0.055450782 0.05786769 0.058889225 0.19931422 -0.08422198 0.0054044267 -0.055622682 -0.12255315 -0.6355101 -0.0671868 -0.067326024 -0.047162034 -0.05100576 0.054605264 -0.02265556 0.03371511 0.092796855 0.06039307 0.03216524 -0.03533469 0.123211466 0.11084247 -0.09833115 -0.043697864 0.040650368 0.006310047 0.014492212 0.11700594 0.051111087 -0.113515295 0.08902394 -0.101309836 -0.0074800556 -0.037453648
vECIR -0.11483924 -0.02197962 -0.12147645 -0.17346762 0.15134597 -0.0038480118 0.035688803 -0.14148167 -0.016957281 0.03422113 0.05873518 0.070497036 0.03236138 -0.074316286 -0.060110968 -0.0580421 -0.015437233 -0.18589018 0.07863703 -0.16444041 0.092989504 -0.25481704 0.054175936 -0.06234267 0.017925786 0.047014933 -0.10205353 0.07781555 0.042152304 -0.12559547 -0.14471523 0.20062849 0.1238683 -0.06093703 -0.0014430545 -0.04421049 0.035822332 -0.12808657 -0.0125678545 -0.00601838 -0.037049644 0.05240204 0.09263943 -0.13728623 -0.038281992 0.0016134866 -0.07793659 -0.12922852 -0.10285002 -0.05069854 -0.073198795 0.044034805 0.4135245 -0.031868823 0.037605006 -0.0720326 -0.010572611 0.06712935 0.046871472 0.054525513 -0.03355812 -0.031572208 -0.14166188 -0.20412378 0.021020593 0.04813584 0.04014896 0.0819742 -0.07741302 -0.03421204 -0.0495729 0.108626485 0.09376706 -0.0481487 -0.010434871 0.080911025 -0.18045074 -0.30798346 0.075702585 -0.19962461 0.17461577 -0.11104012 0.0024573717 -0.146674 0.008923341 0.14538103 0.014936256 0.0062865843 -0.010715017 -0.007772084 0.11150658 -0.020013563 -0.24925227 0.009036147 -0.107116826 -0.13027523 -0.06308343 0.15788575 -0.21212003 0.06821514 0.0072761136 -0.17366326 -0.6263577 -0.017234989 -0.17932372 0.030854762 -0.064565316 0.03287832 0.15530157 0.10598046 -0.10870569 0.021698091 0.018379468 0.018569978 -0.09364248 0.02650419 -0.03343217 0.016741503 0.0007796446 -0.06446949 -0.011448065 0.02629321 -0.046930518 0.0004966429 0.113198526 -0.14920308 0.06419115 -0.08528329
aGabrielDavid 0.0029505584 -0.13618827 -0.039150838 0.03312777 0.14740407 -0.09761445 -0.019086987 -0.07104374 0.08699767 -0.025862584 0.13664421 -0.021274954 0.012496502 -0.015410661 0.26247665 -0.21501453 0.035449874 -0.2642934 0.14777325 0.10590635 0.06367229 -0.44471502 -0.078722686 -0.06712477 0.058771916 -0.047925606 0.08582272 -0.12503277 0.028003294 -0.1444294 -0.24585938 0.207658 -0.19140056 0.020332392 0.2891214 0.02809817 0.23170012 0.057506025 -0.017534805 0.063040495 -0.11433392 0.018183732 -0.056669954 0.009262224 -0.074881196 -0.12260016 -0.10593642 -0.013497607 -0.03024386 -0.010387027 0.07759797 -0.0075630527 0.32468638 -0.11232921 -0.13209313 0.12508705 -0.11401998 0.07145279 -0.023338871 0.008555129 -0.10012046 -0.02591541 -0.089243084 -0.37744477 0.15353607 0.20623711 -0.051107872 0.10086616 0.038911413 -0.23018391 0.049855333 -0.012964127 0.10293737 -0.16592737 -0.06907659 0.026187584 -0.05926438 -0.1379008 0.10398239 0.014408673 0.12753946 -0.05126858 0.02243481 -0.013536597 0.17070062 0.055615485 0.06601307 0.08097139 0.08478572 -0.08423194 0.10208341 -0.27506432 0.035701852 0.13503884 0.008549589 -0.19939932 -0.1540097 0.089986145 0.2115185 -0.046872605 -0.18180895 -0.23881632 -0.39657474 0.03262766 -0.049945366 -0.092348956 -0.17697099 -0.10100858 0.060733397 0.06556126 -0.11588245 -0.030235827 0.035670247 0.0894123 0.02248032 0.008873455 0.050408646 0.010273 -0.1225156 0.0057119974 -0.23425117 -0.122223854 0.07117469 0.30877802 0.042870577 -0.1266925 -0.022990491 -0.21882239
vICDEWorkshops -0.07294577 -0.12090846 0.07614242 0.08304611 0.15383357 0.003926867 0.08525781 -0.027090855 0.06521175 0.0018370856 0.20472683 0.0113151325 0.06942163 0.098196685 0.3741168 -0.23892003 -0.06267886 -0.023013504 -0.0076525537 -0.0567518 0.14624462 -0.26292938 -0.08876642 -0.054211102 0.011127447 -0.0067296056 0.20842785 -0.0783163 -0.05251718 -0.0560225 -0.081673406 0.025310392 0.04780808 0.18130925 0.14026316 -0.014008984 -0.099539116 0.14071657 0.034797277 -0.059906617 -0.15804298 0.079260275 0.11666213 0.176366 0.06461528 -0.15504178 -0.08779623 -0.007636632 -0.023413908 0.13796698 0.008466372 0.1125253 -0.26512492 -0.122309364 -0.020565644 -0.019375307 -0.0120575875 0.10074184 -0.10325268 -0.021879897 0.1389532 0.2047089 -0.122779615 -0.38974574 0.01173995 0.11209652 0.14355747 0.0018776548 -0.0074957777 -0.20373897 -0.08201051 0.0011065743 -0.09923357 -0.15437423 -0.034335874 0.13025641 -0.074762836 -0.111292124 -0.04925387 0.108256534 0.044891942 -0.031650003 0.046721157 0.2983998 0.008845626 0.035623103 0.14612639 0.10714204 0.09617709 0.11720154 0.08065008 -0.14202414 0.008320691 0.08896751 0.033588503 0.09165412 -0.22075267 -0.057033356 0.08043226 -0.24241354 -0.21191272 0.10748841 -0.03163587 -0.04219309 -0.07027538 0.041658804 0.041640352 -0.12236768 0.010433933 0.09822591 -0.03843397 0.07848061 0.015353779 0.08032088 0.21100645 -0.13927874 0.048385628 0.057968084 0.063532196 -0.09733002 -0.1111664 -0.20152088 -0.10733018 0.041716892 0.0046884976 0.06463805 -0.12107376 -0.07708472
aMichaelMorse -0.12582645 -0.19493371 -0.032574173 0.14642575 0.3581561 -0.07164041 0.13451885 -0.065526836 -0.12107223 -0.031603787 0.0895547 -0.03647849 0.010202152 0.16875184 0.36660525 -0.31118283 0.18426256 -0.004383815 -0.034709252 -0.15822916 0.122916535 -0.47844836 0.008759576 -0.020156905 0.17449033 -0.1597836 0.2678637 -0.23782337 0.054108657 -0.09946965 -0.23036627 0.46792716 0.10813394 0.50546867 -0.0728613 0.10241352 -0.08315019 0.018084202 0.4041274 -0.14042448 -0.025018666 0.1066651 0.26557484 0.0932092 0.2930186 -0.13894686 0.023298234 -0.1574267 0.12876232 0.24915148 0.036954414 0.0065357327 -0.40129924 -0.12417785 -0.08003311 0.3112659 0.33315182 -0.025040716 0.17445703 -0.19827051 0.16052914 0.032317184 -0.19935736 -0.33802092 -0.035501186 0.23466595 0.120161 -0.09099993 -0.041597236 -0.13083564 -0.036348388 -0.29198846 -0.1585002 -0.16788374 0.15305138 0.13146544 -0.21612209 -0.27977654 -0.36726925 0.11750533 0.111246645 -0.079768725 0.14956598 0.33280015 0.22900964 -0.069252625 0.18089926 -0.1294188 0.16018163 0.07419712 0.118186675 -0.104098506 -0.047667764 0.07729411 -0.008895236 -0.025381329 -0.31441963 0.05336781 0.06713403 -0.27214742 -0.2787987 -0.020479796 -0.084547125 0.010093569 0.13608846 -0.07611344 -0.036759004 -0.028731408 0.23728204 0.20586465 0.10363092 -0.15531097 0.13322537 -0.2073212 0.27751914 -0.2237381 -0.18254404 0.07337922 0.014659995 0.040305734 -0.033156693 -0.22247168 0.012989295 -0.0025129744 -0.115491405 -0.07726082 -0.17989886 -0.0019684779
aGoetzGraefe 0.027175253 0.0224031 -0.05450968 0.039879836 0.14808449 0.032717723 -0.09678062 -0.0275689 0.1186285 0.025473455 -0.027020779 -0.07393964 -0.009344614 -0.104930125 -0.092453524 -0.09955682 -0.11697439 0.0930511 0.06615492 -0.073689155 0.014197984 -0.08328934 -0.1085124 0.029855505 -0.14619142 0.008809392 -0.0622709 0.017172933 0.089756 0.0039277943 0.027161086 -0.035115566 -0.1371827 -0.05466401 -0.0002122527 0.03309989 0.055977985 -0.023872338 0.05331813 0.14223045 -0.15527189 -0.11910232 0.058382332 0.040413994 -0.04390692 -0.066706754 0.07398679 0.0882673 0.058451008 -0.014180493 0.110419236 -0.037467115 -0.44368973 -0.044288393 0.11789946 -0.1937131 0.04025729 0.13221118 -0.09988236 0.0068158736 0.059386626 0.029069247 0.033086352 -0.33739138 0.06442076 0.112205334 0.25920832 -0.056720555 0.06559566 -0.15107702 0.0688571 0.015498941 -0.025813624 -0.0748459 0.0800891 0.2162897 -0.12673362 -0.3384244 0.07699205 -0.042194746 -0.107092075 0.06942016 -0.038288914 0.008386101 -0.055183586 0.13979359 0.1517116 -0.002239099 0.14562328 0.0389116 -0.011672067 0.05878567 0.060615715 -0.013135543 -0.035874393 0.008279492 -0.02695762 0.26827228 0.05344443 -0.06787731 0.118452445 -0.039325066 0.1623242 0.07906175 0.050152943 -0.07532979 0.10539986 -0.0037433344 -0.097737715 0.106716976 -0.12118696 0.16430022 -0.10076102 0.16351227 0.1310967 0.06723564 0.012714781 -0.018471472 -0.0033315497 -0.046918098 0.07090583 -0.031232432 0.031888958 -0.040930122 -0.1580559 -0.115126 -0.19893742 -0.033652283
vDaMoN -0.060719352 0.10555304 0.07115359 -0.068166226 0.3030741 0.059571583 -0.28709555 -0.099414244 0.1968866 0.047312852 0.066194616 0.08534349 -0.18768455 -0.10452489 -0.07148323 0.032587726 -0.28713548 0.22664522 -0.026240593 -0.004425929 -0.1130822 -0.095094144 -0.10763477 0.17082375 -0.25427923 -0.07217826 0.08164543 0.07094009 0.09393262 -0.14931554 0.16629034 -0.04427717 -0.021665838 -0.033851944 -0.055749156 -0.060408108 0.030338889 -0.059239198 0.11421486 0.07133681 -0.26491874 -0.18555944 0.006884154 0.22164491 -0.024198035 -0.097901784 -0.0074728476 0.15977295 -0.063943855 0.021122975 0.20388149 -0.08458277 -0.5593248 0.08851349 0.08848102 -0.06602056 0.13534376 -0.1632652 -0.18444914 0.058245827 -0.025849072 0.051003225 0.050062124 -0.331489 0.08817818 0.23357627 0.113814294 -0.036240935 -0.0067362185 -0.12810539 0.12335397 0.08743993 0.15333912 -0.03672912 0.1359813 0.3249717 -0.18325256 -0.35549277 0.08557841 0.023952272 -0.08580333 -0.04547283 -0.057258025 -0.13132598 -0.10759764 0.30932233 -0.050647575 -0.1399827 0.016531928 0.035280056 0.11350892 0.3132898 0.23019361 0.003355272 -0.12298372 0.081587285 -0.18220572 0.30851534 0.015561977 -0.22379489 -0.041624513 -0.18107787 -0.00911391 0.063993104 -0.10223471 0.057666186 -0.07002063 -0.05144244 -0.25614038 0.14239542 -0.044876143 0.100218415 -0.073749386 0.18631026 0.11474193 0.06170903 -0.062969476 0.09116397 -0.13342854 -0.09989706 0.16273881 0.0008399494 0.0379069 -0.07154193 -0.07746542 -0.044328798 -0.2746941 0.092013575
vIEEETrans.Knowl.DataEng. -0.07327794 0.03068272 -0.035133764 0.07632727 -0.118812256 -0.047126677 -0.011296092 -0.06978012 -0.1538007 0.004260249 -0.032172345 -0.19305919 -0.039301313 -0.11050321 -0.010680658 -0.04087341 0.063906394 0.06814192 -0.020463474 -0.17215063 0.186275 0.10129101 -0.057166193 0.06385298 -0.028195098 -0.072060354 0.17328833 -0.15112971 -0.12692608 -0.21650067 -0.025100326 0.10126421 0.033722766 0.14258401 0.0071566077 0.042878985 0.1310646 -0.086256765 -0.044948906 -0.032449596 -0.069068514 -0.046463396 -0.117898785 -0.09000173 -0.07460966 0.06918784 0.031290796 -0.018269097 0.08509153 0.046936866 -0.10025931 -0.025824742 -0.45670602 0.00980794 0.03132389 0.17834479 -0.06852747 0.020744294 -0.045215435 0.07868371 -0.030284692 -0.1478734 0.08086352 -0.16573672 -0.32817537 0.0642531 -0.07167426 -0.08328262 0.039686453 -0.03853282 0.00623448 0.09178652 -0.06508322 0.06886119 0.024495808 0.010432333 -0.055512853 -0.016684769 -0.011197273 0.08296685 -0.09688289 -0.046195224 -0.022304645 0.010135335 -0.0012491065 0.0956176 0.047273498 0.018584397 0.06343895 -0.0125585385 -0.039557055 0.013308217 0.0725761 -0.08591536 -0.0011372952 0.023902228 0.041127957 0.077192806 0.0073048654 0.082045704 0.087191276 -0.0573414 -0.21563928 0.2179981 -0.07140967 -0.08934383 0.07494438 0.018294401 0.09995467 -0.0013838247 -0.0026267318 -0.09946826 -0.033835787 0.091939524 -0.035042703 -0.09163427 0.032570545 -0.2744833 0.11607777 0.09257032 0.014254523 -0.16168767 0.014391936 -0.07403259 -0.1544103 0.06701507 0.009830669 -0.028655546
aP.G.Reddy -0.19700862 -0.13190867 -0.0054225344 0.1432429 0.01389483 0.3155065 -0.14811511 -0.10918377 -0.27205825 -0.28325284 0.11159419 -0.27187297 -0.00066883425 -0.19248189 -0.092730984 -0.07420801 0.10656495 0.1671077 -0.029301774 -0.32297 0.39519176 0.16440973 0.045969833 -0.051288836 -0.09881375 -0.08800423 0.23733287 -0.16440877 -0.10657484 -0.33570608 0.035240836 -0.065964565 0.00618004 0.44388732 -0.16134171 0.112347655 0.18916562 -0.048093244 -0.31128007 -0.04611703 0.11393036 -0.061685473 -0.23561674 0.30844727 -0.18805313 0.19971797 0.005552217 -0.1493615 0.021633558 0.13269329 -0.040935833 -0.120213665 -0.46873835 0.027949974 0.056627255 0.1444758 0.12206623 0.010363972 -0.17506568 -0.06259668 0.043821387 -0.34725812 -0.15876335 -0.14494453 -0.3085334 0.36823428 0.032042164 0.25435612 0.0221979 -0.08570504 0.014014999 -0.030809404 0.0036605261 -0.0061022304 -0.037358593 -0.11757816 -0.078315526 0.023292465 -0.079312295 0.05314754 -0.24505244 0.012783923 0.020964598 -0.06604844 -0.2377719 0.11613427 -0.02763018 0.10695544 0.021314126 -0.03578313 0.044076443 0.030512879 0.016250651 -0.13327381 -0.025488822 0.16490473 0.048453834 -0.22574055 -0.08110056 0.1702741 0.07588799 -0.008776986 -0.25023687 0.20746645 0.1109747 -0.04677762 0.04929133 -0.06773888 -0.11942391 -0.15047307 -0.23144667 -0.09762462 -0.19917586 0.060341973 0.01201205 0.053249918 0.02960407 -0.4210704 -0.029944206 -0.034495004 -0.018390968 -0.13474928 0.04179737 0.10199697 -0.09584295 0.015617016 -0.100764066 -0.09112926
aRamD.Gopal -0.01771303 0.11832671 0.17271756 -0.005043487 -0.16020988 0.02213067 -0.13939409 -0.056001194 -0.39514703 -0.033841897 0.054725695 -0.26242355 0.055569824 -0.10431046 0.017150361 0.10854157 0.018791799 0.07411356 -0.0070925727 -0.32721984 0.21192706 0.1287043 0.15462 0.057529226 0.10688911 -0.04338505 0.13814521 0.014529065 -0.05888913 -0.093013756 -0.1356298 0.08940235 0.14873867 0.15795249 -0.114075966 0.13688368 0.1287385 -0.107713506 0.09369204 0.01866477 -0.341254 -0.094911255 -0.0039827083 -0.06348668 0.073644474 -0.02449049 0.0041738213 -0.098171465 0.080560826 0.012850831 -0.09120837 0.039216727 -0.28053036 0.02783225 0.03537642 -0.04646098 -0.008988123 0.05916912 -0.021813607 -0.114594534 -0.13878119 -0.14056419 0.1291849 -0.40417355 -0.32968917 0.13590789 -0.007364846 0.024628801 0.19990566 0.084409654 0.036034 0.18726355 0.09532775 0.052416675 -0.02942935 0.06816533 -0.19224931 0.044629093 0.1090219 -0.13785094 -0.030280674 -0.012440608 -0.056970295 0.2268738 -0.043563582 0.18704121 -0.18223426 -0.045551408 0.10582361 -0.07149833 -0.18133856 -0.07952658 0.15105017 -0.1655236 0.010296843 0.17232162 0.10185444 0.1472855 0.058420096 0.10554609 0.1398501 0.04101925 -0.30988526 0.067308635 -0.035621934 -0.23977065 -0.08829262 -0.07373054 0.26193598 -0.24960604 -0.0456774 -0.14726636 0.10734834 0.33162186 0.112261 -0.042868115 -0.0593254 -0.27139428 0.066906035 0.11344807 -0.16305499 -0.10295969 0.032246068 -0.09255812 -0.30318436 0.066373184 0.016000023 0.10169064
aMi-YenYeh 0.051116496 -0.097128004 -0.05800215 0.01183901 -0.09664317 -0.029538464 -0.046303738 0.031936463 0.031771302 -0.17094012 0.081664786 -0.1129417 0.05656406 0.08741207 0.0812086 -0.042590134 0.078983776 0.055166055 0.08863863 -0.00052711123 0.22120436 0.060764425 0.0007197818 0.11413395 -0.018026073 0.079856895 0.13098477 -0.009610607 -0.12884574 -0.09463575 0.0075863483 0.10300707 0.05859049 0.21578225 -0.17953296 0.043147147 -0.0054450682 0.03640903 -0.08755944 -0.1227372 -0.06464186 0.09335791 -0.03809535 -0.056989197 -0.047190137 0.09966107 0.03681572 0.12122115 0.121437185 0.07930008 -0.09111273 -0.035045248 -0.49219817 -0.07728005 -0.013192775 0.12571941 0.090090424 -0.04324026 0.052310556 -0.017826347 0.084625974 -0.15141031 -0.031107174 -0.18300615 -0.11273831 -0.038015157 -0.011541972 -0.0647057 0.23705785 0.16479082 0.035871826 0.16312218 -0.16356479 -0.12180153 -0.10592722 -0.12996174 0.022400904 -0.0057945894 0.05060512 0.119757585 -0.122319564 0.11108749 -0.17372702 -0.16856559 -0.018417917 -0.0093795825 0.016303416 0.083173394 -0.025862828 -0.053127885 0.02147445 -0.12880118 0.09294538 -0.14381613 0.06392027 0.13043846 -0.16352242 0.10276273 0.12955047 -0.11142679 0.028402464 0.051056553 -0.56601137 0.19386543 -0.1423577 -0.033837087 -0.020106941 -0.11954773 0.15509993 0.19157103 -0.028628165 -0.019053176 -0.08770823 0.08068132 -0.08708079 -0.09083927 0.070084125 -0.20602237 -0.04562981 -0.16002987 -0.05332685 -0.05369464 0.010461146 -0.05303446 -0.2120062 0.2226685 0.108951665 0.048503913
vPAKDD 0.036554854 -0.0075083985 -0.053480323 -0.02098239 -0.07835281 -0.08572854 -0.004011345 0.09269542 0.057579555 -0.14057103 -0.11557778 0.1408272 0.10192299 -0.05538617 0.06058546 0.051660385 0.039087668 -0.020027129 0.004835182 0.053616256 0.02997269 -0.050880414 -0.06654834 0.13045281 0.076567 0.24327801 0.02365495 0.20092672 -0.061858863 0.0865515 -0.15873593 0.050178252 0.0065348963 -0.077189036 -0.12275563 -0.07535585 0.045926128 0.011880773 -0.08140148 0.08407387 0.106935345 0.21697107 0.019890137 -0.04097485 0.06487953 0.05990326 0.014448909 -0.05529656 0.045505982 0.10487617 0.027143575 -0.036300927 -0.46855795 -0.008094671 -0.119830996 0.0049513048 0.12850171 -0.052633893 0.05870252 -0.11388998 -0.10039881 -0.06742444 -0.086149104 -0.20541723 0.046438742 -0.027200976 0.04364954 -0.097116165 -0.04176359 0.24827412 0.0356498 0.08203609 0.016115222 -0.09876946 -0.0076928237 0.022147415 0.014765026 0.15689248 0.0811979 0.034868468 -0.10143437 -0.013746385 0.12619264 -0.0077220923 -0.05620973 -0.042452402 0.07872259 0.024287276 0.026512602 0.0031000923 -0.030895375 -0.14787188 0.1673307 0.059191164 -0.08641674 0.06998887 -0.23483986 0.07051351 0.010421757 -0.0382984 0.13738246 0.059848998 -0.76217085 0.099608384 0.0684771 0.016600795 -0.100385524 -0.023359494 0.047126506 0.061802544 0.0041429256 -0.023490788 -0.086939074 0.043640554 0.060047522 -0.0040564053 0.0846075 0.046867643 -0.07547637 -0.046809718 -0.074661925 -0.018472198 0.0050506117 -0.06571427 -0.047295548 0.18672511 0.052060336 0.2221335
aCarloZaniolo -0.029882561 -0.0035842212 0.012350519 0.031097515 -0.037411705 -0.04841492 0.1389078 -0.11198692 0.3044273 0.011747198 -0.050145466 0.07510549 0.13814723 0.14590774 -0.06388229 -0.09098719 -0.021124233 0.01912403 -0.05350763 0.06376549 0.07547119 0.07257507 -0.009844484 -0.049125437 -0.0073662484 -0.024865216 0.116289385 -0.027753282 0.091939636 -0.029574787 -0.08732261 -0.13207738 0.12309119 -0.023208855 -0.09395395 0.09860403 0.02425413 0.090758964 0.06859491 -0.09642147 0.04608685 0.079055324 0.025084492 -0.10538863 0.009604722 -0.16601077 -0.041135192 -0.04999751 0.07366241 0.046009343 0.15622848 -0.106944196 -0.4513108 -0.07794579 -0.16280112 -0.019817375 0.017619202 -0.038462028 -0.13287376 0.1265184 -0.11850632 0.071592994 -0.056880165 -0.39227605 0.11502853 -0.13772215 -0.16709135 -0.06531339 0.049146112 0.036243923 -0.017931929 0.22901051 -0.10643619 -0.02352411 -0.070603184 0.020410813 -0.096897215 -0.3031875 0.1293596 -0.045271795 0.1041597 -0.003602157 -0.006241502 -0.10533366 -0.067457214 -0.13195811 -0.0962607 0.11314752 -0.011031686 0.08690302 -0.0760926 -0.06201446 0.044679333 -0.17193802 -0.095692255 -0.108585425 0.028886242 0.13156423 -0.015749067 -0.13056828 0.02469456 -0.0577615 0.033511717 -0.06912175 0.02756654 0.09273565 -0.08642405 0.0994631 -0.0416338 -0.16342996 -0.035708148 -0.14429191 -0.065452345 -0.016366383 0.14904928 -0.12891436 0.16508032 -0.12600663 0.0069550416 0.025911627 -0.19351073 0.05517338 0.09245382 -0.07785501 -0.015004355 0.101383545 -0.008673348 0.02581451
vWISE(1) -0.059608065 0.19518186 -0.09617035 0.026504755 -0.108984195 0.12366701 0.08765465 -0.07991285 0.044774648 -0.053332545 -0.124346405 0.1470562 0.13215576 0.24430098 -0.03002897 -0.11259313 -0.111900404 -0.2525172 0.069513775 -0.0015167337 -0.01985766 -0.16951694 -0.15280057 -0.22503828 -0.2709996 -0.086753875 0.07840699 -0.044721663 0.27552184 0.02701118 -0.19512747 -0.06810857 -0.10740392 0.04091892 -0.17602885 -0.019126842 -0.0091474075 -0.003170954 0.13211867 -0.10692345 0.06444331 0.049286127 -0.1846002 -0.16762453 0.048467 0.26096088 -0.018826539 0.06218734 -0.028496567 0.117997706 -0.05466603 0.011814714 -0.29032686 -0.19722876 0.18615302 -0.14658955 -0.1465265 0.06963777 0.081339024 -0.099502936 0.108808294 -0.15362081 -0.06872238 -0.49007425 0.057682432 -0.042353425 -0.17114666 -0.092990234 0.15951343 -0.13055907 0.030131735 -0.10247594 -0.009729638 -0.0005010214 -0.30502513 -0.06533731 0.18390505 0.15100852 0.014726586 0.07609956 0.12223598 -0.16075215 -0.071150504 -0.0593022 0.096741624 0.028629964 -0.06139647 -0.098409556 -0.17116395 0.07895618 0.004067069 0.061062973 0.03482627 -0.027400238 0.21767195 -0.23071855 -0.09664656 0.24014282 -0.180228 -0.2913136 -0.042146802 0.12280199 -0.07618314 -0.16412231 -0.009704935 -0.20416296 -0.027663423 -0.2188865 0.05006088 -0.29435608 0.078986354 -0.030024804 -0.09550858 -0.057519767 -0.003615039 0.0129190665 -0.048183914 -0.02666673 0.18627208 -0.07830386 -0.31937945 0.09670723 -0.026577653 -0.09763473 0.060053147 0.04309021 -0.16035731 0.11691686
aYipengShen 0.005487689 0.08070851 -0.021750322 0.083506726 -0.16260879 0.20220336 -0.15441741 -0.09792433 0.14469217 0.024645057 0.014874885 -0.11240472 -0.038944416 0.11754399 -0.10599961 -0.10531879 0.10490904 -0.2969251 0.25659603 0.008972591 0.10589046 -0.16408104 0.0030854854 -0.43127358 -0.33829707 -0.16848926 0.033402376 0.03162074 0.38673103 0.09800665 -0.17695433 -0.07828676 -0.16301315 0.016773077 -0.12920022 0.10367682 -0.11779071 -0.14135276 0.13770677 0.010146057 0.15524945 -0.06157175 -0.103405066 -0.08158272 0.13950162 0.21820371 0.012690756 0.1478744 0.13535263 0.19639674 -0.03701572 -0.08042517 -0.1512844 0.02881078 0.16293551 -0.08551946 -0.09271175 0.2365468 -0.1727524 -0.16167781 -0.12245847 -0.074515276 0.014781141 -0.7159414 -0.005768454 0.0029206339 -0.3120231 -0.040656783 0.33885643 -0.054577332 -0.004667493 -0.043707386 -0.23716341 -0.19943017 -0.14349572 -0.13264947 0.066568986 0.32437465 0.11824747 -0.23763575 0.013457393 -0.09809313 -0.18026456 -0.16893305 0.11658619 0.1397924 -0.040804565 -0.0065240534 -0.1461034 0.024488216 -0.0013857246 0.12571506 -0.0010818712 -0.022973794 0.17217068 -0.16930789 -0.12847215 0.23314196 -0.22206113 -0.2478014 0.03988035 0.18433753 -0.12231559 -0.16162358 -0.10322676 -0.06776335 0.092590995 -0.014246776 -0.025606344 -0.36727205 -0.12848626 -0.041932315 -0.10073285 0.20786789 -0.008605515 -0.123739675 0.018044213 -0.05453316 0.29764125 -0.11150596 -0.41959906 0.038870886 0.07775928 0.1199942 -0.01614496 0.07915839 0.0057859933 0.11690637
aWeiminZheng -0.03739159 0.18823153 -0.11286004 0.007539255 -0.20653953 0.0689387 0.11701564 -0.12503749 0.14809468 0.0050106747 -0.25257838 -0.048949786 -0.06278151 0.23468795 0.025066214 -0.08201399 -0.1149079 -0.2772554 0.15455694 -0.009013652 -0.01837571 -0.18395692 -0.23979369 -0.07393044 -0.25540125 -0.04693773 -0.10661801 -0.29364714 0.22403765 -0.25068584 -0.19425265 -0.10951762 0.056209356 0.11386304 0.04187149 0.0030506102 0.00059081696 -0.20290966 0.1263353 -0.1262263 0.097434215 0.15222126 -0.0375254 -0.21855704 -0.09303517 -0.098589525 -0.012970081 0.043455347 0.14789166 0.06472762 0.029716805 -0.082157016 -0.285036 -0.17473404 0.009987262 0.15505305 -0.118397094 0.13939127 -0.0068168305 -0.11373882 -0.15605286 -0.2807351 -0.103299886 -0.43644974 0.032246623 -0.070852175 -0.06858676 -0.13262354 0.13051456 -0.08888308 0.150476 -0.08544413 -0.006881854 0.1128062 -0.42431378 -0.1506967 0.20675516 0.14596355 0.06394057 0.26060754 0.4547992 -0.18664433 -0.17262861 -0.18300454 0.31227097 0.1548683 -0.0626277 -0.0027513725 -0.15845382 0.24282819 0.1265445 -0.123678006 0.121439256 0.10274785 0.18831123 -0.1553898 -0.17284794 0.120475516 -0.07767603 -0.16980588 0.20530096 0.060488697 -0.17940083 -0.15863298 0.14742856 -0.29730275 -0.14546952 -0.21216959 -0.03480849 -0.329816 0.14477408 -0.24762353 -0.12872547 0.068490356 -0.18151012 0.046149258 0.07871816 0.025983 0.14373577 -0.12534243 -0.25471205 0.1265154 -0.06889604 0.13644582 0.10847787 0.047038574 -0.010068222 0.104598045
vWAIM -0.10517613 0.13474004 0.06607472 -0.10394485 -0.12169722 -0.005266965 0.08537028 -0.03822467 -0.059795074 0.030523652 -0.04520256 0.085883 -0.11924933 0.06935573 -0.072460584 -0.023280498 -0.052854046 -0.28289905 0.099090844 -0.13422097 -0.091292605 -0.29301098 -0.11015569 0.016452244 -0.02391778 0.02801602 0.027195368 -0.19550014 0.12627707 -0.05734226 0.12185961 -0.20878802 0.07370982 -0.12283608 0.053514093 0.018503632 0.018208098 -0.09889461 0.15901932 -0.12973164 0.05541652 0.03190734 0.058438856 0.16180287 -0.1298773 -0.0062812543 -0.012174159 -0.034820262 0.03880461 -0.035470042 0.21076357 -0.041152734 -0.33162692 -0.105678685 -0.035428464 0.21778738 0.05127318 -0.08454777 0.06614275 -0.22347935 -0.08489927 -0.07133966 -0.035877813 -0.33363795 0.0099801915 -0.06669449 0.038255654 -0.09761634 0.017270707 -0.036906976 -0.037449546 0.01330808 0.097265825 0.06273101 -0.1828027 -0.059092127 0.110214695 0.40576893 -0.08494108 0.09133507 0.034729265 0.009725008 -0.11629172 0.00051183614 0.24665003 -0.075759344 -0.023667386 0.10022835 -0.017163599 0.21926686 0.061498966 -0.07060945 0.111268625 0.07588175 -0.039185204 0.12079446 -0.19769202 0.02376718 0.11464688 0.07150639 0.08916415 -0.19146575 -0.43031707 -0.0010083597 0.01628632 0.013457386 -0.023018979 -0.08192613 -0.20024358 -0.10108997 0.07314775 0.0002364114 -0.14164354 -0.030155811 0.09058044 0.036066808 -0.07152879 0.038454175 -0.004786621 0.124000125 0.08799825 -0.05365004 0.00062472204 0.016577432 0.06687672 -0.10147679 0.11513696 -0.013184552
aYuanWang -0.054331474 0.11180836 0.04001544 -0.09482075 -0.16553786 -0.04654717 0.07263775 -0.06841164 -0.036129355 0.0107402 0.051311262 -0.04502547 -0.13090503 -0.18924989 0.01188604 -0.09374608 -0.086887985 -0.22532202 0.14659788 -0.04316329 -0.12848596 0.17729104 -0.06415449 0.017594185 0.086194284 0.049851123 -0.0319771 -0.056165375 0.08932499 0.016754612 0.12793441 -0.14596848 0.18966313 -0.0049244673 0.28630018 -0.02083211 -0.3108207 -0.1695117 0.108988985 0.05481379 -0.030234044 -0.015876522 -0.06721754 -0.16399504 -0.07355253 -0.07956646 -0.18155745 0.111904524 0.034675602 -0.2301036 0.5019628 0.03177776 -0.4730316 -0.037926618 0.024608888 0.083874464 -0.091574386 -0.15106031 -0.09797516 -0.10897356 -0.12712325 0.00044445597 0.012907613 -0.117240526 -0.025608435 0.050218876 0.14672355 -0.09977151 0.075987525 -0.2539416 -0.119785324 -0.026204662 -0.024381626 -0.10707567 -0.065350614 -0.011400116 0.15424289 0.046188343 -0.05142967 -0.03217787 0.06228315 -0.04769028 -0.12723748 0.13424356 0.028069269 -0.04226545 0.0581856 0.00065446895 0.012763094 0.13864912 0.029565182 0.04390024 0.30918887 0.047590148 -0.073244594 0.1317378 0.049939662 0.014200341 -0.020757496 0.15556139 0.07355569 -0.1738557 -0.25656787 0.0009185546 0.14371188 0.043163966 0.03743214 -0.09314082 -0.028634073 -0.083717555 -0.054280043 0.12907429 -0.100806154 0.016727023 0.026095483 0.10192647 -0.21630716 -0.007898789 0.10947627 0.001684125 -0.060511366 -0.10030402 0.046459354 -0.060058735 0.008728395 -0.11067872 0.03549787 -0.01632232
vIEEEDataEng.Bull. 0.073537864 0.012243246 -0.071726926 0.010562106 -0.104395315 -0.10104768 0.067534186 0.08905669 0.06479292 0.008777963 -0.007400552 0.14941086 0.07895121 -0.06900084 -0.15357015 -0.20304677 -0.038689576 0.091305114 0.059997465 -0.076024756 -0.012030492 -0.035510805 -0.045460835 0.23085156 -0.057330582 0.1354385 -0.008896857 -0.098608 -0.10849714 0.042785455 0.10774304 -0.0029371616 0.029457353 0.053762045 0.0137860775 -0.115217365 0.003920116 0.029153263 0.08055885 0.11749408 0.103182636 -0.0572884 -0.06457699 -0.040501762 0.08878329 0.04224035 0.01139394 -0.024491321 0.12668458 -0.041628093 0.06612508 0.009972141 -0.36243924 0.0694511 0.2644657 -0.07844374 -0.16865423 0.04222133 -0.13432685 -0.06379906 -0.081424296 0.08535878 0.13217758 -0.31375253 -0.0013706781 -0.13751003 0.046284683 -0.06163254 0.13116731 -0.1613076 0.0055625006 -0.20686576 0.017735157 0.09356249 -0.07904379 0.1406138 -0.15033054 -0.36727524 -0.07769476 -0.04317201 -0.04327292 -0.15272124 -0.06865217 -0.043168638 0.017750438 0.014938062 -0.033772875 0.21897441 0.08784539 -0.057656646 -0.061940767 0.0107536325 0.11147952 0.06622393 -0.054424763 -0.20852035 0.012251905 0.20532387 0.10684592 -0.0068997853 -0.013984867 0.07770368 0.12273447 -0.018193323 -0.04020778 -0.048379 0.009841458 0.0923918 -0.069964975 0.13954394 -0.051459614 0.08137989 0.019017143 -0.067627236 0.057985917 0.081877194 -0.03829189 0.16196111 0.09152573 -0.14161746 -0.12135102 -0.10144512 -0.026239442 0.11753887 -0.17432076 -0.03934444 -0.011538687 0.07605218
aHectorGarcia-Molina -0.0005936161 0.15375271 0.01973952 0.0041530146 0.026173914 0.12620848 0.01762581 0.119704515 0.022512924 -0.16267611 0.08093167 -0.05268493 0.15342957 -0.035827547 -0.19725056 -0.0057624998 -0.04339727 0.08385417 -0.062241986 0.059337772 -0.10393266 -0.0288575 0.05792189 0.17808114 -0.027870199 0.12501228 0.04908097 0.0072576306 0.12618212 0.05094461 0.0027153885 -0.118387945 0.03403874 0.06626998 0.002532967 0.0020069983 0.10963177 0.047194157 0.15370108 -0.03193976 0.02762219 -0.026466398 -0.006459919 -0.0794869 0.045682263 -0.14314565 -0.15482067 -0.061274678 -0.06388712 -0.081111975 0.05178573 -0.05497378 -0.12810382 0.035737127 0.15578945 -0.107587434 -0.0011100121 -0.17689896 0.07625344 0.14008738 -0.08746172 -0.07578536 -0.008372747 -0.414863 -0.10906301 -0.10255295 0.047813818 -0.024474341 0.005731864 -0.22119513 -0.07333105 0.06271533 -0.034750152 -0.070908576 0.10564529 0.05731594 -0.037041295 -0.28207394 0.042430863 0.01744178 0.07073319 -0.07876632 -0.08148277 0.028991893 0.045613293 0.016939584 -0.00949881 0.019840915 -0.07491081 -0.047466565 -0.022856716 0.078623764 0.28201884 -0.055197906 -0.013976101 0.1523644 0.059205614 -0.1500148 0.08795438 -0.03878548 0.007628102 0.03574047 0.109284 0.09706505 0.05551703 -0.034272913 -0.085502654 -0.013836968 0.028976953 -0.10770513 0.082839236 -0.102630354 0.10997452 -0.0955834 0.05587899 0.04325339 -0.08415795 -0.082650155 0.026013723 -0.113685325 -0.06930344 -0.09398339 -0.062347386 -0.063611105 -0.19666252 -0.0177236 0.093806535 -0.012860308
vSIGMODConference -0.1056201 -0.08650256 -0.069535024 -0.0410059 0.0053418865 0.00041343947 -0.1328668 0.07097108 0.10656693 0.071747966 0.07954445 -0.021424547 -0.0223138 -0.13242906 -0.16641612 0.1564224 -0.04405424 0.048670124 -0.10468878 -0.015846688 -0.0651236 -0.045561127 -0.039280746 -0.13300467 0.10399923 -0.0436211 -0.019045964 -0.07121475 -0.054206308 0.07644068 0.021279654 -0.06799778 -0.019075086 0.069572605 0.02678308 0.029570155 0.114817694 -0.024670986 0.04515513 0.061383698 0.023602407 -0.012198586 0.026229277 -0.18716961 -0.02980387 0.003709989 0.009226124 0.001479869 0.07534449 -0.038808286 0.15177816 -0.037094194 -0.48134345 -0.1631924 -0.09197279 0.0945763 -0.013211057 0.2246449 0.06760224 0.0015428339 0.018632205 0.052889653 0.048268687 -0.2965185 0.07800787 0.08581617 -0.00018391626 -0.008433777 -0.08235226 -0.12669694 -0.002654486 -0.13309897 0.093241036 0.111472234 -0.106244825 0.012866697 0.072775654 -0.35309467 -0.13110872 -0.07863193 -0.042258028 0.02145773 -0.02087983 -0.030412998 0.025662135 0.01832459 0.06814121 0.030374164 0.028624745 0.015170521 0.034217414 -0.025385456 0.21563873 -0.069196306 -0.07382657 0.18013605 -0.015917072 0.0049813907 -0.07742512 -0.14241327 -0.13019958 0.18960637 0.14667775 0.0011789728 -0.048082404 -0.04713665 -0.05917414 -0.043882232 0.014083514 0.0053657168 -0.036396958 0.08097239 -0.12677525 -0.112178415 0.021656776 0.042619437 -0.099667676 -0.10808327 -0.03081207 -0.045806833 0.07519278 0.004031973 0.17555003 -0.06572125 -0.15801875 0.0040893136 0.053170893 0.014123324
aAnthonyJ.Bonner 0.100352876 0.042059287 0.026697906 -0.028571326 -0.34537897 0.035502076 0.054963283 -0.22202878 0.11140798 -0.055168733 0.022862133 -0.13849637 0.40321904 0.06374042 0.14768186 0.10967888 -0.035102308 0.0042458307 -0.07570512 0.07276141 -0.050886814 0.04027001 -0.049785882 0.17330313 0.040635172 0.072234645 -0.16187127 0.06792963 -0.039286084 -0.073307075 0.15227656 -0.14374818 0.03753421 -0.030232126 -0.1430641 -0.03488094 0.051636897 0.054424617 -0.0048315176 -0.11737089 -0.00015951577 -0.15420611 0.15757257 -0.15476328 -0.164053 -0.042019434 -0.04464929 -0.1701155 0.23674889 -0.08935068 0.038453605 -0.07525964 -0.47658607 -0.10776225 -0.043073416 0.059456408 0.18423651 0.14417267 0.08813067 -0.0006523946 0.0455903 -0.116552755 0.12865879 -0.40792108 -0.10537573 0.06250915 -0.3424172 0.00022503868 0.092284 0.20392182 -0.033711925 -0.021266224 -0.09131779 0.04632503 0.057170372 -0.13077927 -0.066045284 -0.5302305 0.21690728 0.21999896 0.108523615 -0.1135186 -0.049631488 0.007421992 -0.013244668 0.04416776 0.082121454 0.052559663 0.2078025 0.19508936 -0.06212938 -0.0152679 -0.008427987 -0.053509522 0.19939354 0.12575883 0.027045913 -0.054782234 0.14787912 0.13826138 -0.11983596 0.19143642 0.011696412 -0.17907684 -0.040128227 -0.055161104 -0.011308545 -0.05914174 -0.05069683 -0.060456466 -0.07512351 -0.015517835 0.02682181 0.0017957857 0.028909491 0.08222033 0.09602535 -0.18878622 0.16660467 0.009479822 0.07597117 0.045600783 -0.0065431814 -0.081905544 0.0150827505 -0.011384486 -0.03587552 -0.11944986
vDBPL 0.10817451 0.069285475 -0.0702357 -0.018739346 -0.028373227 0.0050662635 0.05582853 0.16080897 -0.0681103 -0.09847715 -0.14354049 0.049918126 -0.011655168 0.17682381 0.12250906 0.06578804 -0.08439684 -0.0687436 0.032141533 0.031891532 0.055736758 0.04191854 0.01135757 0.08537285 0.0207352 -0.08501483 -0.11426453 -0.06057036 -0.00073393335 0.0315328 0.16771215 -0.019367717 0.10775426 0.04933153 -0.10256895 -0.06993644 -0.041995537 0.126202 0.049404193 -0.13182634 -0.012215879 0.11513334 0.13721341 -0.055832773 0.065640144 0.09211939 0.076789215 -0.14616136 0.10968423 -0.040239748 0.17817988 -0.047366176 -0.37213176 -0.101361364 -0.09077176 -0.0043169893 0.05514199 0.05207307 -0.11018092 -0.16649123 0.11889568 -0.087721996 -0.048591845 -0.5172442 -0.09572612 -0.03557641 -0.116430536 -0.017113399 0.09329126 0.036108818 -0.1395029 -0.0073083164 0.027746433 -0.012663395 0.022709712 -0.04965046 -0.057958517 -0.55006415 0.33037254 0.20552005 -0.106865264 -0.073262 0.03616576 -0.05975278 0.009766247 -0.17060363 0.16554828 -0.04821324 0.19755715 0.09065557 -0.011090506 -0.005864697 -0.0012598527 0.0899729 -0.03554306 0.09630124 0.14387581 -0.026749989 0.07869993 0.12362643 -0.0328335 0.057179384 0.22429414 -0.11690877 -0.073089935 -0.029618133 0.0116131 0.14388722 -0.054233376 -0.009220663 -0.10741398 -0.20268567 0.022866968 -0.047524083 -0.07977368 0.021863632 -0.100619644 -0.13837948 -0.004911034 -0.09392527 -0.042853415 0.18665087 0.095815755 0.057127323 0.05718105 -0.02153208 -0.13441497 -0.022559421
aPaulPhilbrow 0.018823547 0.015503966 -0.21032523 -0.033704802 -0.07068852 -0.02032653 -0.0050294343 0.18659814 -0.19279711 0.04555916 -0.2058509 0.15255438 -0.062714115 0.25693303 0.16941915 -0.05064699 -0.103505865 -0.12866454 -0.02384706 -0.09269158 -0.120003454 0.019806424 0.042168558 0.23072061 -0.015930358 0.1948275 -0.23427433 -0.16360205 -0.11590755 0.14816554 0.12862036 0.042045448 0.0108505245 0.10327631 0.14782107 -0.047199935 -0.18738405 0.1244065 -0.0026662522 -0.26102948 -0.0064607104 -0.008115442 0.23940016 0.048555914 0.11527032 0.054468993 0.138686 -0.30899113 0.10657345 -0.0007005094 0.07716581 0.04122429 -0.39323282 -0.044200867 0.012399574 0.10188816 -0.013307392 0.06370991 -0.2382903 -0.35717776 0.061707634 -0.15518744 -0.19992793 -0.5367962 -0.21006003 0.15947409 -0.06588413 0.09300166 0.07078983 -0.0388525 -0.095437855 -0.12970652 -0.08032196 0.020179646 0.010266556 0.038233824 -0.0001569346 -0.6012114 0.20043351 -0.040583644 0.08902608 0.0030132942 0.02017164 0.055898458 -0.07608317 -0.11175673 0.20603248 -0.14530925 0.030646712 0.073563136 -0.20999281 -0.21103352 -0.18476532 -0.10166443 -0.022422042 0.02502968 0.025560824 -0.09612183 -0.08876819 0.09605738 -0.047284324 0.06817405 0.29996487 0.045348804 -0.0074391034 -0.11664195 -0.007992697 0.024643335 -0.20920527 -0.093153864 0.12738374 -0.25544184 -0.09785635 -0.15010408 -0.15812877 0.013863618 0.19961157 -0.08008309 0.04201536 -0.07811787 0.021575099 0.13486919 0.1815343 -0.011180141 -0.16002978 -0.18837383 -0.029775366 -0.09825188
vPOS -0.05391238 0.030606352 -0.038785376 -0.00037946482 0.010316799 -0.06629041 -0.1271145 -0.03396506 -0.022567058 -0.035305955 -0.23529969 0.06603498 -0.08822762 0.24672315 0.11730313 0.021651063 -0.15564662 -0.11619036 -0.001543195 0.009651612 -0.1808025 0.14331508 0.03675522 0.117063895 0.10346817 0.16328858 -0.23956606 -0.015667917 -0.13295174 0.24730493 0.06010366 0.070246235 -0.034231704 0.15299654 0.15108052 -0.0074153016 -0.21498328 0.097719595 0.024636386 -0.14906813 0.05234552 -0.034126014 0.26858097 0.060497217 0.12891804 0.12412711 0.14223813 -0.20974304 0.08677962 -0.009012169 0.10465181 -0.062218606 -0.3695436 -0.0010483332 -0.09465453 0.022812383 -0.07627231 0.05481559 -0.09398267 -0.29501507 -0.024141023 -0.073295444 -0.27800688 -0.5023933 -0.17340899 0.120665245 0.03686737 -0.069885746 -0.017252255 -0.16788627 -0.029974971 -0.027543524 -0.10124202 0.08271939 -0.0042938883 -0.015138963 0.07477898 -0.47933525 0.32544205 0.016425112 0.18355933 0.032671172 -0.031509805 0.027850203 0.013045775 -0.16138738 0.20777696 -0.086613774 -0.006752915 -0.021822302 -0.10893396 -0.037583616 -0.13604347 0.032062802 -0.0459919 0.006221205 -0.07730981 0.019782258 0.018446272 0.07245744 -0.03614807 0.0024683478 0.27959976 0.133063 -0.08170373 -0.09514846 -0.010297845 0.024690585 -0.03347369 -0.11235175 0.18488811 -0.3328939 -0.094136894 0.053912174 -0.19274212 0.030604092 0.060886014 -0.035178892 -0.015753813 -0.025620542 0.0056553725 0.15543409 0.2058008 -0.059947688 -0.19130588 -0.27678823 -0.0151516395 -0.11202001
aOmarBoucelma 0.05173065 0.059997898 0.031714916 -0.057611074 -0.07870126 -0.14684904 -0.11347507 0.082510844 0.03511505 -0.05883663 -0.3709761 -0.050701052 0.023120405 -0.07784082 0.060938273 0.012022583 0.25608075 -0.072363794 -0.04549171 0.07995139 -0.0004832493 -0.3280056 -0.098081686 0.044239152 0.1548585 0.030420365 0.007533686 0.25095615 -0.06758884 0.16843878 -0.10025809 0.17097552 0.086480476 0.0012265702 0.12862751 0.006030268 -0.35505322 0.13320324 -0.007380458 0.034912057 -0.0038740674 -0.08699667 0.33312106 0.015430596 -0.057984363 -0.14725171 -0.024187813 0.15188012 -0.015384671 0.014867638 -0.20020178 -0.06330002 -0.28790703 0.00378042 -0.002515696 0.027276888 -0.16935404 0.083277315 -0.015640574 0.11995216 -0.0421331 -0.22864775 -0.16160794 -0.44263342 0.079798914 0.14865375 -0.17775641 -0.03702 0.05884587 -0.17261286 -0.03421261 0.013493913 -0.049378 0.07304068 -0.021174394 -0.036534686 0.07533023 -0.14053752 -0.056830864 0.04343543 -0.04945926 -0.064272 -0.29976124 -0.15512452 -0.05472536 0.062100675 0.11834936 -0.07142092 0.084921174 -0.03606547 0.07066792 0.06363792 -0.09193016 0.07842545 0.0024854413 0.011316253 0.07095476 -0.14480217 0.10664885 0.1500051 0.038681123 -0.07699885 0.08356056 -0.1362525 0.00061444 -0.056271847 -0.09978746 0.06745856 0.061599944 -0.005759198 0.13280529 -0.29285392 -0.016666222 0.10343457 0.0075252308 -0.09092018 0.036945727 0.09980194 0.0889068 0.04497854 0.044068333 0.045457978 0.14640552 0.20848776 0.2850975 -0.11128268 -0.037343934 -0.14339428
vEEXTT -0.07467266 0.10445518 -0.19777991 -0.08062143 0.0059430767 -0.20641686 -0.06402432 0.0010508685 0.0679831 -0.12154335 -0.09738066 -0.049973838 0.117569335 0.13963687 0.0142772645 0.20942447 0.35617742 0.034892675 0.09858144 0.0013351666 -0.010296621 -0.25170726 -0.17524636 0.028018942 0.15885212 0.00055005646 0.20531532 0.03235088 0.07427843 0.03667446 0.02319701 -0.049517978 -0.010227685 -0.16159147 -0.062880225 0.13256198 0.059130486 0.13553222 -0.10510093 0.2323763 -0.06431599 -0.018069314 0.10178705 0.2977401 -0.16518763 -0.013745401 -0.13525608 0.17687775 0.040037096 -0.041265305 0.10397218 -0.1992643 -0.29400364 -0.022940747 0.055456452 0.11803509 -0.20434454 -0.03271674 0.21958733 -0.12980434 0.23496924 -0.05488 -0.00217778 -0.56039363 0.08378999 0.19153112 0.065450564 -0.09159972 -0.018619481 -0.14905736 -0.010507628 -0.030710233 0.06582787 0.22865078 -0.1873035 -0.05456388 0.10433991 -0.13049051 -0.11855288 -0.022002416 -0.009766255 0.029424526 -0.18701375 -0.07007973 0.06894262 -0.10817234 -0.14433743 -0.055663478 -0.20845936 0.084717594 0.20644133 -0.03586841 0.052850246 0.17969854 0.07113454 0.12875123 0.07066476 0.08035578 0.09698253 0.101370625 -0.02189482 -0.14975932 0.09640105 -0.085383 -0.05418041 -0.05860798 -0.08540406 0.15352297 0.18427424 0.05783072 -0.121083915 -0.47406766 -0.0005108011 0.19069298 -0.047405753 -0.18318442 0.06511578 0.13228834 0.033555105 0.027910113 -0.06778586 -0.020971598 -0.07624042 0.10905613 0.11960848 0.0973027 -0.08693329 0.032867003
aIoanaManolescu -0.031979937 -0.0144915 -0.12428014 0.036095195 0.09914284 -0.13998213 -0.07874419 0.032261863 0.07208301 0.0375374 -0.115075715 0.12779553 0.0871843 -0.31082323 -0.13929458 -0.04889576 0.045576327 -0.012612074 0.025484975 -0.009258562 -0.027771655 -0.033360843 -0.04427198 0.1402398 -0.0774788 -0.1517197 0.00071617874 0.040357873 -0.13866024 0.026842402 0.07455852 -0.043180045 -0.026941052 0.09509376 -0.13583589 0.033957753 -0.09281394 -0.08329015 0.0043448163 0.041685868 -0.20101015 0.08081451 0.114867315 0.036005504 0.100148454 0.025259102 -0.104702845 0.22268227 -0.21800272 0.046974525 0.058860835 0.056940224 -0.18454581 0.03407989 -0.11542117 0.06096865 -0.06736713 -0.050088987 0.013332513 -0.045079943 -0.079417124 -0.09370289 0.18610135 -0.5454944 0.17091739 0.008071163 -0.018384172 0.02551703 0.016271587 -0.06640057 -0.025538286 -0.02387659 -0.09998853 -0.010663204 -0.048794717 -0.060294516 -0.10987746 -0.2362327 0.047739483 -0.13751304 -0.14140992 0.1029367 -0.0274323 0.021887884 0.13902617 0.035117898 -0.0178281 -0.08864089 -0.22074053 -0.15597783 0.04019889 0.01054114 0.061319053 0.068663605 0.042929668 -0.050645463 0.045869246 0.027050165 0.06132403 0.18184297 0.052629583 -0.076349355 0.14730406 -0.04972129 -0.02255846 -0.06868151 -0.06743108 0.018466264 0.057043146 0.07117545 0.13988152 -0.1835887 0.048195682 -0.042649996 -0.032821536 -0.09061412 0.025701163 0.016296187 0.12952194 -0.04058829 0.053142436 0.20113696 -0.06580109 0.06459682 0.03713431 0.07241996 0.07103743 -0.13443394
vExpDB 0.0016933056 -0.105607174 -0.1762556 0.16799995 0.29955623 -0.14278144 -0.16951855 0.025063511 -0.0059170495 0.20575185 0.15933459 -0.07944901 0.064150244 -0.15860221 -0.08708275 -0.23842229 -0.09324445 -0.026460893 -0.070130795 0.06351758 0.08900287 -0.06610256 0.12320453 -0.062224038 -0.07932484 -0.048164863 0.07226019 0.23477863 -0.061360713 -0.047512587 -0.2746188 0.021032637 0.015699953 -0.037121143 -0.012320657 -0.059977975 0.041946348 -0.045160297 0.015587146 0.057677984 -0.1337095 0.010232769 0.12544602 0.16210066 -0.042798076 -0.11140723 -0.013765983 0.16788055 0.036746826 -0.0047360635 0.3227796 0.032146785 -0.281953 -0.008341155 -0.10279824 0.010003331 -0.074520245 -0.24916261 0.20544851 -0.07321052 0.019439042 -0.18575615 0.23551533 -0.50055707 0.11614604 0.047611378 0.25196123 0.22295171 0.11284531 -0.13323566 -0.02006597 0.20628385 -0.067231745 -0.04422169 0.044395894 0.1824472 -0.23226906 -0.4577135 0.086395375 -0.22531676 -0.22399154 0.2727121 -0.032196138 0.024348756 0.039052367 0.08679867 0.17560728 0.21294944 -0.113042384 -0.0020075906 -0.05708025 0.00405694 -0.09579208 0.05318661 -0.021060618 0.1035436 -0.019231977 -0.01301808 0.059451986 0.12324925 0.02907082 0.08517394 0.17055996 -0.020884143 -0.12596817 -0.28242853 -0.085143514 -0.122856334 -0.044897202 0.20699643 0.01726288 -0.0807791 0.112276316 0.050742067 -0.011207406 -0.11169267 -0.014821591 0.22835448 0.22618188 -0.14710855 0.04595992 0.38639542 -0.07450558 -0.096887656 -0.11250427 0.1901447 0.090460464 -0.087938175
